<?xml version="1.0"?>
<opencv_storage>
<cascade>
  <stageType>BOOST</stageType>
  <featureType>HAAR</featureType>
  <height>35</height>
  <width>18</width>
  <stageParams>
    <boostType>GAB</boostType>
    <minHitRate>9.9500000476837158e-01</minHitRate>
    <maxFalseAlarm>5.0000000000000000e-01</maxFalseAlarm>
    <weightTrimRate>9.4999999999999996e-01</weightTrimRate>
    <maxDepth>1</maxDepth>
    <maxWeakCount>100</maxWeakCount></stageParams>
  <featureParams>
    <maxCatCount>0</maxCatCount>
    <featSize>1</featSize>
    <mode>BASIC</mode></featureParams>
  <stageNum>2</stageNum>
  <stages>
    <!-- stage 0 -->
    <_>
      <maxWeakCount>3</maxWeakCount>
      <stageThreshold>-1.3056410551071167e+00</stageThreshold>
      <weakClassifiers>
        <_>
          <internalNodes>
            0 -1 4 -8.0733504146337509e-03</internalNodes>
          <leafValues>
            7.7037036418914795e-01 -9.5416665077209473e-01</leafValues></_>
        <_>
          <internalNodes>
            0 -1 2 1.4631943777203560e-02</internalNodes>
          <leafValues>
            -9.0416896343231201e-01 5.6377202272415161e-01</leafValues></_>
        <_>
          <internalNodes>
            0 -1 0 -7.4014840647578239e-03</internalNodes>
          <leafValues>
            5.5269455909729004e-01 -8.8976263999938965e-01</leafValues></_></weakClassifiers></_>
    <!-- stage 1 -->
    <_>
      <maxWeakCount>3</maxWeakCount>
      <stageThreshold>-1.1762449741363525e+00</stageThreshold>
      <weakClassifiers>
        <_>
          <internalNodes>
            0 -1 1 6.3477575778961182e-02</internalNodes>
          <leafValues>
            -8.7748849391937256e-01 6.9068205356597900e-01</leafValues></_>
        <_>
          <internalNodes>
            0 -1 3 7.7690924517810345e-03</internalNodes>
          <leafValues>
            -9.0779781341552734e-01 5.5517309904098511e-01</leafValues></_>
        <_>
          <internalNodes>
            0 -1 5 6.3034147024154663e-03</internalNodes>
          <leafValues>
            -6.6103261709213257e-01 6.0904133319854736e-01</leafValues></_></weakClassifiers></_></stages>
  <features>
    <_>
      <rects>
        <_>
          4 15 6 5 -1.</_>
        <_>
          6 15 2 5 3.</_></rects>
      <tilted>0</tilted></_>
    <_>
      <rects>
        <_>
          6 17 6 15 -1.</_>
        <_>
          6 22 6 5 3.</_></rects>
      <tilted>0</tilted></_>
    <_>
      <rects>
        <_>
          7 3 3 10 -1.</_>
        <_>
          7 8 3 5 2.</_></rects>
      <tilted>0</tilted></_>
    <_>
      <rects>
        <_>
          8 13 3 9 -1.</_>
        <_>
          9 13 1 9 3.</_></rects>
      <tilted>0</tilted></_>
    <_>
      <rects>
        <_>
          9 12 2 12 -1.</_>
        <_>
          10 12 1 12 2.</_></rects>
      <tilted>0</tilted></_>
    <_>
      <rects>
        <_>
          12 14 3 9 -1.</_>
        <_>
          13 14 1 9 3.</_></rects>
      <tilted>0</tilted></_></features></cascade>
</opencv_storage>
